<?xml version="1.0"?>
<MethodSetup Method="MLP::MLPBNN">
  <GeneralInfo>
    <Info name="TMVA Release" value="4.2.0 [262656]"/>
    <Info name="ROOT Release" value="5.34/32 [336416]"/>
    <Info name="Creator" value="gkukec"/>
    <Info name="Date" value="Fri May  4 14:28:33 2018"/>
    <Info name="Host" value="Linux SpeedyCorrin 4.8.0-53-generic #56~16.04.1-Ubuntu SMP Tue May 16 01:18:56 UTC 2017 x86_64 x86_64 x86_64 GNU/Linux"/>
    <Info name="Dir" value="/home/gkukec/Gasper/github/auger-analysis/dbg/tmva_example"/>
    <Info name="Training events" value="2780"/>
    <Info name="TrainingTime" value="4.35431840e+01"/>
    <Info name="AnalysisType" value="Classification"/>
  </GeneralInfo>
  <Options>
    <Option name="NCycles" modified="Yes">600</Option>
    <Option name="HiddenLayers" modified="Yes">N+5</Option>
    <Option name="NeuronType" modified="Yes">tanh</Option>
    <Option name="RandomSeed" modified="No">1</Option>
    <Option name="EstimatorType" modified="No">MSE</Option>
    <Option name="NeuronInputType" modified="No">sum</Option>
    <Option name="V" modified="Yes">False</Option>
    <Option name="VerbosityLevel" modified="No">Default</Option>
    <Option name="VarTransform" modified="Yes">N</Option>
    <Option name="H" modified="Yes">True</Option>
    <Option name="CreateMVAPdfs" modified="Yes">True</Option>
    <Option name="IgnoreNegWeightsInTraining" modified="No">False</Option>
    <Option name="TrainingMethod" modified="Yes">BFGS</Option>
    <Option name="LearningRate" modified="No">2.000000e-02</Option>
    <Option name="DecayRate" modified="No">1.000000e-02</Option>
    <Option name="TestRate" modified="Yes">5</Option>
    <Option name="EpochMonitoring" modified="No">False</Option>
    <Option name="Sampling" modified="No">1.000000e+00</Option>
    <Option name="SamplingEpoch" modified="No">1.000000e+00</Option>
    <Option name="SamplingImportance" modified="No">1.000000e+00</Option>
    <Option name="SamplingTraining" modified="No">True</Option>
    <Option name="SamplingTesting" modified="No">False</Option>
    <Option name="ResetStep" modified="No">50</Option>
    <Option name="Tau" modified="No">3.000000e+00</Option>
    <Option name="BPMode" modified="No">sequential</Option>
    <Option name="BatchSize" modified="No">-1</Option>
    <Option name="ConvergenceImprove" modified="No">1.000000e-30</Option>
    <Option name="ConvergenceTests" modified="No">-1</Option>
    <Option name="UseRegulator" modified="Yes">True</Option>
    <Option name="UpdateLimit" modified="No">10000</Option>
    <Option name="CalculateErrors" modified="No">False</Option>
    <Option name="WeightRange" modified="No">1.000000e+00</Option>
  </Options>
  <Variables NVar="3">
    <Variable VarIndex="0" Expression="xmax" Label="xmax" Title="xmax" Unit="" Internal="xmax" Type="F" Min="5.80774963e+02" Max="1.06739734e+03"/>
    <Variable VarIndex="1" Expression="shwsize" Label="shwsize" Title="shwsize" Unit="" Internal="shwsize" Type="F" Min="7.65198946e+00" Max="3.95757332e+01"/>
    <Variable VarIndex="2" Expression="risetimerecalc" Label="risetimerecalc" Title="risetimerecalc" Unit="" Internal="risetimerecalc" Type="F" Min="6.40709991e+01" Max="6.80773193e+02"/>
  </Variables>
  <Spectators NSpec="0"/>
  <Classes NClass="2">
    <Class Name="Signal" Index="0"/>
    <Class Name="Background" Index="1"/>
  </Classes>
  <Transformations NTransformations="1">
    <Transform Name="Normalize">
      <Selection>
        <Input NInputs="3">
          <Input Type="Variable" Label="xmax" Expression="xmax"/>
          <Input Type="Variable" Label="shwsize" Expression="shwsize"/>
          <Input Type="Variable" Label="risetimerecalc" Expression="risetimerecalc"/>
        </Input>
        <Output NOutputs="3">
          <Output Type="Variable" Label="xmax" Expression="xmax"/>
          <Output Type="Variable" Label="shwsize" Expression="shwsize"/>
          <Output Type="Variable" Label="risetimerecalc" Expression="risetimerecalc"/>
        </Output>
      </Selection>
      <Class ClassIndex="0">
        <Ranges>
          <Range Index="0" Min="6.2133929443359375e+02" Max="1.0673973388671875e+03"/>
          <Range Index="1" Min="7.6519894599914551e+00" Max="3.4724906921386719e+01"/>
          <Range Index="2" Min="6.4070999145507812e+01" Max="5.1647283935546875e+02"/>
        </Ranges>
      </Class>
      <Class ClassIndex="1">
        <Ranges>
          <Range Index="0" Min="5.8077496337890625e+02" Max="8.1727911376953125e+02"/>
          <Range Index="1" Min="8.3463096618652344e+00" Max="3.9575733184814453e+01"/>
          <Range Index="2" Min="6.4330345153808594e+01" Max="6.8077319335937500e+02"/>
        </Ranges>
      </Class>
      <Class ClassIndex="2">
        <Ranges>
          <Range Index="0" Min="5.8077496337890625e+02" Max="1.0673973388671875e+03"/>
          <Range Index="1" Min="7.6519894599914551e+00" Max="3.9575733184814453e+01"/>
          <Range Index="2" Min="6.4070999145507812e+01" Max="6.8077319335937500e+02"/>
        </Ranges>
      </Class>
    </Transform>
  </Transformations>
  <MVAPdfs>
    <PDF Name="MLPBNN_PDFSig" MinNSmooth="0" MaxNSmooth="0" InterpolMethod="2" KDE_type="1" KDE_iter="1" KDE_border="1" KDE_finefactor="1.0000000000000000e+00">
      <Histogram Name="MLP_tr_S_original" NBins="55" XMin="-1.5169890224933624e-01" XMax="1.1012369394302368e+00" HasEquidistantBins="1">
        0.00000000e+00 0.00000000e+00 0.00000000e+00 0.00000000e+00 0.00000000e+00 7.08585965e-02 1.41717193e-01 1.06287895e-01 4.25151579e-01 2.48005088e-01 3.89722281e-01 1.77146491e-01 4.96010175e-01 3.54292982e-02 2.12575789e-01 3.18863684e-01 2.83434386e-01 2.48005088e-01 3.89722281e-01 3.89722281e-01 3.54292982e-01 2.48005088e-01 2.48005088e-01 1.77146491e-01 3.18863684e-01 3.54292982e-01 2.83434386e-01 3.18863684e-01 4.60580877e-01 2.83434386e-01 3.89722281e-01 2.48005088e-01 4.60580877e-01 2.83434386e-01 4.96010175e-01 3.54292982e-01 5.66868772e-01 4.60580877e-01 8.14873860e-01 6.37727368e-01 4.96010175e-01 9.56591052e-01 9.21161754e-01 1.09830825e+00 8.85732456e-01 1.34631333e+00 1.52345982e+00 1.94861140e+00 3.15320754e+00 1.07705067e+01 5.38525333e+00 2.62176807e+00 9.21161754e-01 1.77146491e-01 0.00000000e+00 
      </Histogram>
    </PDF>
    <PDF Name="MLPBNN_PDFBkg" MinNSmooth="0" MaxNSmooth="0" InterpolMethod="2" KDE_type="1" KDE_iter="1" KDE_border="1" KDE_finefactor="1.0000000000000000e+00">
      <Histogram Name="MLP_tr_B_original" NBins="55" XMin="-1.5169890224933624e-01" XMax="1.1012369394302368e+00" HasEquidistantBins="1">
        2.85044809e-02 0.00000000e+00 2.85044809e-02 1.42522404e-01 4.56071694e-01 1.05466579e+00 2.87895257e+00 5.81491409e+00 9.94806382e+00 4.36118557e+00 2.42288087e+00 1.93830470e+00 1.51073749e+00 1.45372852e+00 1.11167475e+00 9.69152349e-01 8.26629945e-01 5.70089617e-01 7.12612021e-01 5.41585136e-01 5.13080655e-01 6.27098579e-01 5.41585136e-01 3.13549289e-01 3.42053770e-01 4.56071694e-01 3.99062732e-01 1.71026885e-01 2.28035847e-01 2.56540328e-01 3.13549289e-01 2.28035847e-01 2.28035847e-01 2.28035847e-01 2.56540328e-01 5.70089617e-02 1.14017923e-01 1.71026885e-01 1.42522404e-01 1.42522404e-01 1.14017923e-01 1.42522404e-01 1.42522404e-01 1.14017923e-01 1.71026885e-01 5.70089617e-02 1.14017923e-01 1.71026885e-01 1.71026885e-01 1.71026885e-01 0.00000000e+00 2.85044809e-02 0.00000000e+00 0.00000000e+00 0.00000000e+00 
      </Histogram>
    </PDF>
  </MVAPdfs>
  <Weights>
    <Layout NLayers="3">
      <Layer Index="0" NNeurons="4">
        <Neuron NSynapses="8">
          -1.3150024238491511e+00 3.0170374777895312e+00 1.7224986093676187e+00 1.6990386231000701e-01 -1.6333768130115371e+00 -2.4686008572416767e+00 -2.5660023797009313e+00 5.8166679287145930e+00 
        </Neuron>
        <Neuron NSynapses="8">
          -7.6908221661963627e-01 -1.4194257161681962e+00 -1.2471492019196004e+00 2.0555883183594906e-01 -2.5244096804441368e-01 2.6510654005202366e-01 9.7047281620594172e-01 -2.0128794845957598e+00 
        </Neuron>
        <Neuron NSynapses="8">
          7.5676113984779123e-02 2.2913280535418474e+00 4.4530203979853500e-01 1.7569418359936331e+00 -4.7150191324576629e-01 6.9916799792173634e-01 -6.7534870220890075e-01 2.4393992708133068e+00 
        </Neuron>
        <Neuron NSynapses="8">
          -1.4554248579541456e+00 1.3259643412736519e+00 7.5105257810631743e-01 -1.3117274967112256e+00 -5.4739491983949107e-01 -1.6191256400058262e-02 -4.1550301880286145e-01 2.9179479742735364e+00 
        </Neuron>
      </Layer>
      <Layer Index="1" NNeurons="9">
        <Neuron NSynapses="1">
          4.2238152201886298e-01 
        </Neuron>
        <Neuron NSynapses="1">
          -4.8805990793603005e-01 
        </Neuron>
        <Neuron NSynapses="1">
          -3.0904151442489258e-01 
        </Neuron>
        <Neuron NSynapses="1">
          -8.2162613905445847e-01 
        </Neuron>
        <Neuron NSynapses="1">
          -2.8812202576032170e-01 
        </Neuron>
        <Neuron NSynapses="1">
          3.5786825677404344e-01 
        </Neuron>
        <Neuron NSynapses="1">
          -6.6903621393915846e-01 
        </Neuron>
        <Neuron NSynapses="1">
          7.8624073823172846e-01 
        </Neuron>
        <Neuron NSynapses="1">
          9.0698954362451692e-02 
        </Neuron>
      </Layer>
      <Layer Index="2" NNeurons="1">
        <Neuron NSynapses="0"/>
      </Layer>
    </Layout>
    <InverseHessian NElements="1681" NRows="41" NCols="41">
      <Row Index="0">
        3.2026823543185043e+02 2.6283024413627075e+01 -1.1054818808505122e+01 4.5722921470070581e+00 4.7937484256893370e+01 -9.1379473612908875e+00 -8.4666985950874665e+00 -2.4195789549740905e+00 1.8153289479876503e+02 -2.5730414783983516e+01 -1.9595302163389931e+01 3.7857586838190818e+00 -1.6163056004582893e+02 -5.4702120253854840e+00 1.5010282185521282e+00 2.9116601177711587e-02 -1.2333381540266728e+01 3.0230076634943540e+01 8.6310263371445899e+00 -2.6165004846933924e+00 1.3277549825433337e+02 1.0407371785786435e+01 -9.7028740468273096e+00 3.6509409963043660e-01 2.7277853162042442e+02 1.2307479785636030e+01 3.0668065780838880e+00 3.9512053310666126e+00 4.3395423178545364e+01 -6.4948118266007915e-01 -1.5795803147568535e+00 -1.5320630081165909e+00 1.2747170687323150e+02 1.4154409198048672e+01 7.6413223945445177e+00 1.4076312628448591e+00 -2.5550771057608458e+01 -5.4310393961453123e+00 7.6440247543499709e+00 6.3812416901851665e-01 7.6943525073853436e+01 
      </Row>
      <Row Index="1">
        2.6283024413850654e+01 4.1278452206933125e+01 -1.1514648307190043e+01 4.1917960193189421e+00 1.3433563008193577e+01 4.1852501962831052e+00 2.2142224336265701e+00 8.0165515865048711e+00 1.9918214017341722e+01 -2.1462824013509358e+01 -3.8187456305610183e+00 7.6046212356061114e+00 -2.0145529539052379e+01 5.7393455170929926e+00 -1.3487891115730552e+01 -1.6908397129388839e+00 -8.7726038475278454e+00 4.3366118320318598e+01 1.2713581448820623e+01 9.1608864710465525e+00 3.3614424217274042e+01 -1.3655071472865094e+01 3.2141385011016368e+01 1.8217693692812358e+00 2.5699459591282356e+01 2.3847103901649948e+01 3.9610325756020224e+00 9.8777907791629218e+00 7.8724098974802139e+00 -6.1738330980737182e+00 1.0187648671087548e+01 2.8218715319677328e+00 1.3865881913391469e+01 2.2793083899776107e+01 -5.1803600724240573e-01 2.0314030946134807e+01 -3.8037056412036137e+00 1.2379279553017394e+01 4.2663545974555799e+00 -3.0187736701053720e+00 2.6787324129792179e+01 
      </Row>
      <Row Index="2">
        -1.1054818807234495e+01 -1.1514648306822256e+01 1.4125438201274676e+02 -2.8737867561722088e+00 4.5456052511444653e+00 5.4534938578250323e+00 -1.6184210194284894e+01 -2.2853750184678361e+01 -1.1244097794328901e+01 1.4418921765109735e+01 -8.2160479356488182e+01 -1.1190808751555137e+01 -6.9599067837964924e+01 1.1007953203257839e+00 -3.1610715164840805e+01 9.1981345168442328e+00 1.5051921176226328e+01 -2.3177278147676173e+01 3.6311946717652063e+01 5.6012878873246352e+00 -7.0257935804068508e+00 4.8843484757654387e+00 -2.2320392706636877e+01 -1.0086879044135616e+01 1.7785740976130935e+00 -6.6083682219409399e+00 1.0773902489575478e+02 -5.7532837420643608e+00 -5.6695304487053848e+00 4.8530311344228574e+00 -2.2137458383086535e+01 -1.0530194376402548e+01 -1.8781114119239660e+01 -1.3446758920359324e+01 3.9360973550545758e+01 -3.3481803365055267e+00 3.7679268916035113e+01 -4.8278049804225267e+00 1.9291508281149121e+00 8.8404815780829153e+00 -2.0166703817105233e+01 
      </Row>
      <Row Index="3">
        4.5722921473139371e+00 4.1917960193702051e+00 -2.8737867563865596e+00 2.9527605782729303e+01 2.1394939640644584e+01 3.9347322433187102e+01 2.2298285002954493e+01 8.8082577379856879e+00 9.9563746897531082e+00 -5.3059519179881853e+00 -2.8926135886591298e+00 9.8939064758771522e+00 -1.2436538168350899e+00 -2.5091761823022818e+00 -1.0456418531163239e+01 -2.4908618663162199e+00 -1.5470486718629733e+01 9.0970308097501995e+00 8.6706527776720854e+00 1.6669735440839098e+01 5.0269482423036465e+01 -1.6120196276304185e+01 1.7324906895598176e+01 3.2785847874710461e+00 2.3559177877009763e+00 3.2231169545103899e+00 2.0014709468825465e+00 1.0103030890754258e+01 2.3509207762417013e+01 -1.5286402527432370e+00 4.3459521669249686e+00 4.7188777138876894e+00 6.5583455152583818e+00 7.5679880718950505e+00 -1.2591066789474463e+00 1.6717455851059498e+01 -1.2683083478709250e+01 1.8041197747530610e+01 -9.6544621097850438e+00 -3.7054857933043119e+00 1.9215164647658384e+01 
      </Row>
      <Row Index="4">
        4.7937484257116353e+01 1.3433563008362487e+01 4.5456052506677374e+00 2.1394939640687333e+01 9.5175208785739116e+01 3.9008120921470564e+01 1.1823831755878203e+01 -4.4482362119892862e+00 5.4402202066711126e+01 -1.0692553327130593e+01 -2.7919500880926631e+01 5.2233243910284770e+00 -5.2050724740045553e+01 5.9719587010007720e+00 -2.1010124297702340e+01 4.3360983150458465e-01 -3.1321072901412506e+01 9.2950135421048437e+00 1.1427401377845973e+01 -1.5327557681309010e+00 8.4254902228129637e+01 -2.2748015435299710e+01 1.2094007922577180e+01 5.9855150861306261e-01 5.9186211015714974e+01 8.8549145099428195e+00 1.8277752319165614e+01 1.0463332438054323e+01 1.8046203293156001e+01 -7.2197498885774647e-01 3.5612930520194088e+00 -2.1588003389553627e+00 3.6031349859056775e+01 4.6172493055064159e+00 1.2872077304353139e+01 6.0019427460941639e+00 -1.5713677199199147e+01 1.8744222218182074e+01 -1.2269990229119633e+01 1.6487581600790868e+00 1.9359151161504812e+01 
      </Row>
      <Row Index="5">
        -9.1379473601803713e+00 4.1852501965964164e+00 5.4534938573742213e+00 3.9347322433257808e+01 3.9008120921543451e+01 1.0340008578289830e+02 7.4965781947400714e+01 2.7046788666678733e+01 1.4872198406634798e+01 -8.2698833909624021e+00 -1.3622763780466252e+01 1.0133367386645990e+01 -1.0594650880757902e+01 8.5858379318567160e+00 -3.5381237759254915e+01 -7.8608972502269765e+00 -3.0504805860166435e+01 1.4017328595309561e+01 2.4193800045886462e+01 2.1444170054677613e+01 8.1824687321173343e+01 -6.1267507045625337e+01 4.2423893043162408e+01 1.1299771338309570e+01 -7.2824366266740945e+00 2.9140196792859383e+00 1.3471103477202728e+01 1.6336276982447767e+01 3.0161170172958276e+01 -8.7636617797687180e+00 5.3769525249479582e+00 1.5039695649060416e+01 7.0379524668591174e+00 1.4014645627962086e+01 -2.2145077750476085e+00 2.3395396122201987e+01 -1.4283785189482888e+01 4.5134808957172865e+01 -4.1762284477169480e+01 -1.1573149804145764e+01 2.3823687835428306e+01 
      </Row>
      <Row Index="6">
        -8.4666985930419898e+00 2.2142224342607859e+00 -1.6184210194965818e+01 2.2298285003106102e+01 1.1823831756054199e+01 7.4965781947378801e+01 1.4039629349592968e+02 6.3274322458842605e+01 1.7741611578465552e+01 -1.8726420258831297e+01 2.6922213017509012e+01 3.6237201129821415e+00 -1.6508004018360950e+01 3.5199635779650016e+01 -5.4331954715354371e+01 -2.1416896585888928e+01 -2.5729987717403539e+01 4.4121543235650229e+01 4.9102731977948366e+00 1.7342818744477370e+01 4.1480644946225389e+01 -7.8734017119726332e+01 9.2036308964998511e+01 3.1045508717380507e+01 -1.0093674237895051e+01 1.0220459977665405e+01 -2.1310156095067352e+01 1.8162000342387401e+01 4.5066106346689896e+00 -7.8733249839687218e+00 1.5196902252342035e+01 3.6612128745361254e+01 9.9978239400327773e+00 3.2320606523468300e+01 -3.0019074129920096e+01 2.6959933492118108e+01 1.3784552717009291e-01 5.0362507314155721e+01 -8.0731687775612869e+01 -2.6363566717975200e+01 3.2407569778410547e+01 
      </Row>
      <Row Index="7">
        -2.4195789540429806e+00 8.0165515868005617e+00 -2.2853750185162294e+01 8.8082577380690310e+00 -4.4482362119451002e+00 2.7046788666593709e+01 6.3274322458661061e+01 5.6232100410169231e+01 3.4343522039613883e+00 -1.5153288066367820e+01 2.4949879125986712e+01 5.3397307344081923e+00 4.8437252132611208e+00 1.5717054957745088e+01 -2.2960944246416126e+01 -1.6327628131491586e+01 -1.0595031293315630e+01 3.8768827805226501e+01 -3.5364767153793393e+00 7.2754573359729307e+00 1.2264090349309885e+01 -3.2288611726335915e+01 5.0844112116277792e+01 2.1615425278483201e+01 -8.4757265367895105e+00 7.8717987318298643e+00 -1.9022617031313761e+01 9.4814630664928536e+00 5.2764076362036256e+00 -4.0585792757149051e+00 8.1421597847751848e+00 3.0509543542892136e+01 2.3222477016162859e+00 2.7159407676567014e+01 -1.8492547776428445e+01 1.4660346281703228e+01 -1.8789655700451604e+00 2.1615824950855071e+01 -3.0789980550116205e+01 -2.0403550667688179e+01 1.7652710303126646e+01 
      </Row>
      <Row Index="8">
        1.8153289479898822e+02 1.9918214017371330e+01 -1.1244097795268251e+01 9.9563746896497776e+00 5.4402202066590391e+01 1.4872198406070089e+01 1.7741611577400505e+01 3.4343522035156573e+00 1.2620350016708070e+02 -1.9923470942445064e+01 -1.9888487852685870e+01 3.2551363352182534e+00 -1.1217305525162313e+02 2.8788410989708542e+00 -9.9830040251365553e+00 -2.4675565132072390e+00 -2.3446727696560291e+01 2.5829108034372055e+01 7.5410168370617594e+00 2.8000070122719762e+00 1.0877511726300052e+02 -1.2748529595317899e+01 7.8060317173641200e+00 4.3417068443893543e+00 1.6681028931385947e+02 1.1455117933973812e+01 1.6332749992424151e+00 6.4543540358653502e+00 2.2912480936046258e+01 -1.6198673237109347e+00 4.4680563361725643e+00 2.0656671731633338e+00 8.4372946485588443e+01 1.2911087640845192e+01 6.7165364582011069e+00 7.3464439959846608e+00 -1.9391258519317475e+01 9.2236002830975963e+00 -9.1988933048451660e+00 -2.0132885876749889e+00 5.2630217829361783e+01 
      </Row>
      <Row Index="9">
        -2.5730414784336240e+01 -2.1462824013555426e+01 1.4418921765460006e+01 -5.3059519179534362e+00 -1.0692553327022095e+01 -8.2698833906935576e+00 -1.8726420258305584e+01 -1.5153288066126681e+01 -1.9923470942516158e+01 2.2023427608061308e+01 -6.9733448806633049e+00 -4.3093493738944630e+00 1.3948564813469574e+01 -1.2010410461016937e+01 7.7028779341402123e+00 5.5198624946921315e+00 8.0701204566266060e+00 -3.9582730706582865e+01 -2.3866482265993332e+00 -9.6510178044443933e+00 -2.8517499112107753e+01 1.8986533073229747e+01 -3.1003778480777438e+01 -6.3779745501085037e+00 -2.1608124356261428e+01 -1.5001480060613666e+01 7.7322447794004798e+00 -7.9761832535320112e+00 -9.7771351220645002e+00 1.9698379493906870e+00 -1.2739636737631097e+01 -7.5734726392887879e+00 -1.3806615795358429e+01 -2.0937876156759181e+01 5.8095421460934871e+00 -1.6019894660901631e+01 4.4752992497405870e+00 -1.3231049302523314e+01 5.1111421036887288e+00 5.9529770261192496e+00 -2.3799490683825155e+01 
      </Row>
      <Row Index="10">
        -1.9595302163923673e+01 -3.8187456307606884e+00 -8.2160479356352269e+01 -2.8926135887852595e+00 -2.7919500881158466e+01 -1.3622763780689757e+01 2.6922213017240992e+01 2.4949879125755828e+01 -1.9888487853113176e+01 -6.9733448804880407e+00 8.3580270090962983e+01 5.1011714041740106e+00 7.5897766342559834e+01 5.4931890572152620e+00 2.1677139667763242e+01 -9.4754678003901152e+00 -3.2424618807079986e+00 1.4315093010175593e+01 -3.7344231116424773e+01 -4.8924033535135081e+00 -3.0676288605194713e+01 -3.8012283999256624e+00 2.2183823043757865e+01 1.0299752733381942e+01 -3.5571651266578691e+01 -5.6973284966335047e-01 -7.8748815718091905e+01 1.9135743319919758e+00 -1.5894367695269886e+00 4.6646085881282495e-01 1.3034449391783175e+01 1.2918335560234537e+01 -4.7072396169688862e+00 9.4380721426097409e+00 -4.1181798223028899e+01 -8.9607018109155057e-01 -2.0202433052003332e+01 7.4212504769528920e-01 -1.1400566363442376e+01 -9.9885521600508937e+00 3.9381594265898436e+00 
      </Row>
      <Row Index="11">
        3.7857586837803501e+00 7.6046212355735259e+00 -1.1190808751656718e+01 9.8939064758542159e+00 5.2233243909498022e+00 1.0133367386560215e+01 3.6237201128151537e+00 5.3397307343084268e+00 3.2551363351380758e+00 -4.3093493738587716e+00 5.1011714042514118e+00 8.0902249550094041e+00 4.3032163893965389e+00 -4.6505889803780738e+00 -1.5303626972559954e+00 -1.2499798416993571e+00 -6.1891823356612905e+00 8.6366059705577385e+00 2.2679681448644642e+00 6.6628108274977933e+00 2.0259969351007527e+01 -2.0794719341536605e+00 8.0028297674263165e+00 1.2086966732486699e+00 2.3632013976530728e+00 3.8294709834940486e+00 -4.8867760108993004e+00 4.1185678436760824e+00 9.3000604575349577e+00 -2.0144913345681914e+00 2.1998811104138181e+00 2.4473339271441148e+00 3.3102812334710223e+00 5.9258265103159715e+00 -3.3818533779879556e+00 8.4075200168011985e+00 -7.8723088668908314e+00 5.2158605163233931e+00 1.0844963353521089e+00 -2.1014730156200381e+00 1.0099849397723899e+01 
      </Row>
      <Row Index="12">
        -1.6163056004699465e+02 -2.0145529539459829e+01 -6.9599067837003645e+01 -1.2436538169222615e+00 -5.2050724740264577e+01 -1.0594650880549727e+01 -1.6508004017880985e+01 4.8437252132546433e+00 -1.1217305525232369e+02 1.3948564813746405e+01 7.5897766342217736e+01 4.3032163892163453e+00 1.7826438758138266e+02 6.8102870348126165e-01 3.5824825771249643e+01 -1.9781579079983089e+00 7.9328713608099131e+00 -1.6580339842243387e+01 -3.3921426886509472e+01 -1.2778225628954374e+00 -9.9590836387454701e+01 2.1203552785356039e+00 3.7235060249759453e+00 -9.7324466650326102e-01 -1.6782751498136133e+02 -1.0899273625635383e+01 -6.2569242695544865e+01 -9.3823092273549946e-01 -8.0822101793572916e+00 3.6065860346354839e-01 1.1176576864687863e+01 1.4223973513718207e+00 -6.6897650658290189e+01 -6.9883586312409562e+00 -3.1049804559544082e+01 -2.7968006507658174e+00 -1.6242646772447557e+01 -2.1729099171173623e+00 1.4116521240591672e+01 -1.6881700180364396e+00 -3.2070634911288614e+01 
      </Row>
      <Row Index="13">
        -5.4702120241299612e+00 5.7393455172592525e+00 1.1007953201426961e+00 -2.5091761823482344e+00 5.9719587010056623e+00 8.5858379315328559e+00 3.5199635779084886e+01 1.5717054957499061e+01 2.8788410995364160e+00 -1.2010410461107346e+01 5.4931890572036117e+00 -4.6505889803474361e+00 6.8102870317542852e-01 5.5510302931948679e+01 -2.9036612201755851e+01 -5.1565250238623577e+00 -6.7242089014812061e+00 3.2534336001045901e+01 -4.2539548828334812e+00 4.6396091091438905e+00 -1.9119346193063077e+01 -7.1805638766603465e+01 7.2144795149228131e+01 6.5598414851546671e+00 -7.2142153232550541e+00 1.1881466605738659e+01 -3.6933321399818198e-01 1.4491900761325610e+01 -7.5715219463791099e+00 -7.6490933283468863e+00 2.8099878164199559e+01 8.6004689178609794e+00 -4.5274691799694600e-01 2.1014581190229098e+01 -3.3951796602242963e+00 1.8857793330107455e+01 6.8925767551433239e+00 3.7244669794614595e+01 -3.2792647620281080e+01 -6.4402651942725040e+00 1.9023013679742068e+01 
      </Row>
      <Row Index="14">
        1.5010282168874409e+00 -1.3487891116124899e+01 -3.1610715164396069e+01 -1.0456418531236103e+01 -2.1010124297834530e+01 -3.5381237759121497e+01 -5.4331954715070417e+01 -2.2960944246405305e+01 -9.9830040259904536e+00 7.7028779344406857e+00 2.1677139667645427e+01 -1.5303626973672522e+00 3.5824825771668202e+01 -2.9036612201927753e+01 5.5775787336492428e+01 5.8646792744021923e+00 1.0017589323686606e+01 -3.0495983097161300e+01 -1.8519388250087271e+01 -1.2768876478180346e+01 -2.5291255786193915e+01 6.2640136110800917e+01 -6.9954089264305424e+01 -1.0744224719528408e+01 -6.0054625068377216e+00 -1.5739752243286961e+01 -3.1452712375457153e+01 -1.5964369552374706e+01 -1.1092884854137282e+00 1.1575448476639188e+01 -1.1553999397286702e+01 -1.3768461540871243e+01 -2.7795847615991578e+00 -2.1837076346951445e+01 -3.9071196505877541e+00 -2.5253436461571649e+01 -1.0356666020549547e+01 -3.9691894207774752e+01 3.9871547236160964e+01 9.2834775060803505e+00 -2.3401648948821745e+01 
      </Row>
      <Row Index="15">
        2.9116600920902513e-02 -1.6908397130270583e+00 9.1981345169874995e+00 -2.4908618663400333e+00 4.3360983149737109e-01 -7.8608972502034300e+00 -2.1416896585840743e+01 -1.6327628131492325e+01 -2.4675565133267945e+00 5.5198624947634425e+00 -9.4754678004607733e+00 -1.2499798417282477e+00 -1.9781579080098624e+00 -5.1565250239423523e+00 5.8646792744112508e+00 5.5892147592282591e+00 3.6590261733129794e+00 -1.2270658616430850e+01 1.8330944645929952e+00 -2.7084104003306493e+00 -4.7280232425492068e+00 9.9875679808833819e+00 -1.5414163395768067e+01 -7.3438430058601973e+00 1.8176274853307186e+00 -2.5199206704177044e+00 8.6552919056876139e+00 -2.6643114342432170e+00 -1.0302455915968045e+00 8.1947301773399595e-01 -2.9770757460739170e+00 -9.0902630715123518e+00 -2.0088454723222240e+00 -7.9960092924573987e+00 7.0571825429246600e+00 -4.5194025245911709e+00 1.4240700558243304e+00 -6.4206928464204527e+00 1.0491820971029988e+01 6.1020189156953455e+00 -6.1370392900996684e+00 
      </Row>
      <Row Index="16">
        -1.2333381540459953e+01 -8.7726038476208679e+00 1.5051921176507379e+01 -1.5470486718649710e+01 -3.1321072901363916e+01 -3.0504805860103943e+01 -2.5729987717287614e+01 -1.0595031293271729e+01 -2.3446727696622315e+01 8.0701204566932301e+00 -3.2424618808718559e+00 -6.1891823357025544e+00 7.9328713606475674e+00 -6.7242089015528173e+00 1.0017589323632741e+01 3.6590261733022160e+00 2.2296129522107172e+01 -1.3380156862487185e+01 -5.4896053367415476e-01 -3.7423096232083992e+00 -3.9927714902843306e+01 2.0666845924029253e+01 -1.9308909455342270e+01 -4.7751483043840137e+00 -1.4560926287402784e+01 -5.2791852754324058e+00 6.2308049572178374e+00 -8.2686234547144011e+00 -8.8890273559429769e+00 1.2571285821216449e+00 -6.5310698867175851e+00 -5.4782657623471991e+00 -1.4620250686121818e+01 -8.7696718308876243e+00 3.4853750312053431e+00 -8.5891140396002132e+00 1.2460665377353056e+01 -1.5934911764975487e+01 1.3567423023986528e+01 4.6014816036234025e+00 -1.4529784903153857e+01 
      </Row>
      <Row Index="17">
        3.0230076636000931e+01 4.3366118320469312e+01 -2.3177278148378743e+01 9.0970308096967756e+00 9.2950135418938107e+00 1.4017328594743301e+01 4.4121543234524509e+01 3.8768827804718399e+01 2.5829108034677517e+01 -3.9582730706627842e+01 1.4315093010506597e+01 8.6366059706430178e+00 -1.6580339841797013e+01 3.2534336000920504e+01 -3.0495983096580467e+01 -1.2270658616277501e+01 -1.3380156862344952e+01 8.9269911382187985e+01 6.6187311193832041e+00 2.1850474046030740e+01 3.5423255152527361e+01 -5.3879955614351545e+01 8.6471575863703663e+01 1.5036244142850343e+01 2.3782660443050112e+01 3.5030715502611145e+01 -9.7565416455012475e+00 2.0163711043915669e+01 1.2407999501598612e+01 -7.7230901827531966e+00 3.1815792233725261e+01 2.0130825579574932e+01 1.7254272061875039e+01 4.9972077354304865e+01 -1.2189398591614898e+01 3.8944724407155761e+01 -4.3081282620327528e+00 3.5536521877789610e+01 -1.4575427448319306e+01 -1.5034080044410725e+01 4.8973043380830305e+01 
      </Row>
      <Row Index="18">
        8.6310263376656060e+00 1.2713581448960360e+01 3.6311946717470953e+01 8.6706527777221467e+00 1.1427401377920804e+01 2.4193800045922657e+01 4.9102731977863661e+00 -3.5364767153231167e+00 7.5410168373529878e+00 -2.3866482267131541e+00 -3.7344231116361073e+01 2.2679681449138513e+00 -3.3921426886641349e+01 -4.2539548828002047e+00 -1.8519388250096206e+01 1.8330944645775737e+00 -5.4896053372763332e-01 6.6187311195958873e+00 3.4140636641213412e+01 1.2612088626463930e+01 2.8960786357795328e+01 -6.6271477526963096e+00 5.4527827365781931e+00 -2.1832954817425025e+00 1.3107152452126162e+01 6.0188446465444736e+00 3.8428772523521516e+01 3.3207206290193767e+00 7.4902398921081250e+00 -5.2277378967085113e+00 -5.5321731737897695e+00 -1.7294840391630295e+00 2.6001678990343216e+00 4.7400747228727766e+00 1.2492312084554030e+01 1.2650119915526567e+01 7.0102540591396085e+00 8.3476154951544714e+00 -1.9767122138984909e+00 8.0718108788562981e-01 1.0931265312932762e+01 
      </Row>
      <Row Index="19">
        -2.6165004840960790e+00 9.1608864710602020e+00 5.6012878871521314e+00 1.6669735440818314e+01 -1.5327557682253963e+00 2.1444170054540294e+01 1.7342818744123960e+01 7.2754573357660925e+00 2.8000070124547563e+00 -9.6510178044311772e+00 -4.8924033534177056e+00 6.6628108275124305e+00 -1.2778225628401856e+00 4.6396091091070062e+00 -1.2768876478006714e+01 -2.7084104002671836e+00 -3.7423096231294402e+00 2.1850474045939723e+01 1.2612088626418801e+01 4.3242971664383731e+01 3.9532203656983150e+01 -2.6394189233713234e+01 2.8248625792154989e+01 3.3345645378795052e+00 -3.5505263310344901e+00 9.2686468186631057e+00 6.3287721892960658e+00 9.5811441683986800e+00 1.7010439467506430e+01 -5.9019916272094264e+00 9.8097223769638084e+00 4.1288747297394508e+00 1.4220649652549389e+00 1.3552747270802065e+01 -7.1477712023438156e-01 3.8064902242283857e+01 -4.7125775005357156e+00 2.0147161796586698e+01 -7.2973925139328450e+00 -3.1319483077659509e+00 3.7052068247959596e+01 
      </Row>
      <Row Index="20">
        1.3277549825487617e+02 3.3614424217380488e+01 -7.0257935814977976e+00 5.0269482422970441e+01 8.4254902227939212e+01 8.1824687320682216e+01 4.1480644945260956e+01 1.2264090348891589e+01 1.0877511726309706e+02 -2.8517499112117918e+01 -3.0676288604613767e+01 2.0259969351111295e+01 -9.9590836386700971e+01 -1.9119346193388793e+01 -2.5291255785458574e+01 -4.7280232424360804e+00 -3.9927714902772401e+01 3.5423255152411997e+01 2.8960786357487077e+01 3.9532203656883439e+01 1.9800986646048091e+02 -3.2947001384637900e+01 2.1075246508826822e+01 7.2850292673427246e+00 1.3198640994783003e+02 1.7621448133995194e+01 1.3368081083188752e+01 1.7041808991366565e+01 5.9717018837377161e+01 -8.9912236733405564e+00 3.1430262786451770e+00 6.4153073485281880e+00 7.2951015669155012e+01 2.0806444436142684e+01 7.3963753104340686e+00 3.8738202587507729e+01 -3.6828917489356783e+01 3.5207048244715565e+01 -1.7515843984008960e+01 -5.4400005528084634e+00 7.2065022385729918e+01 
      </Row>
      <Row Index="21">
        1.0407371783519466e+01 -1.3655071473152319e+01 4.8843484762413798e+00 -1.6120196276187926e+01 -2.2748015435237281e+01 -6.1267507044989166e+01 -7.8734017118665548e+01 -3.2288611725870958e+01 -1.2748529596287284e+01 1.8986533073386745e+01 -3.8012284000256500e+00 -2.0794719342051167e+00 2.1203552789596642e+00 -7.1805638766631901e+01 6.2640136110440992e+01 9.9875679807329334e+00 2.0666845923871879e+01 -5.3879955614564658e+01 -6.6271477525771658e+00 -2.6394189233708062e+01 -3.2947001385113367e+01 1.4686022943786372e+02 -1.2731263254173267e+02 -1.3300063374307747e+01 9.1932324150195157e+00 -2.0509225700742974e+01 4.0258198017391966e-01 -2.8919890158447004e+01 -9.9514192179053911e+00 2.5341986118715283e+01 -4.4248523954918092e+01 -1.7671402167380265e+01 -5.7631091656745435e+00 -3.7221367528785208e+01 7.4152076998707068e+00 -4.5525134919907330e+01 5.1863774698129816e+00 -8.3335123546597686e+01 6.8137879926870909e+01 1.3501543169228936e+01 -4.7097726940580316e+01 
      </Row>
      <Row Index="22">
        -9.7028740444727930e+00 3.2141385011351488e+01 -2.2320392707292722e+01 1.7324906895508775e+01 1.2094007922417468e+01 4.2423893042434955e+01 9.2036308963670976e+01 5.0844112115688191e+01 7.8060317182931271e+00 -3.1003778480954793e+01 2.2183823043967294e+01 8.0028297675153226e+00 3.7235060248293621e+00 7.2144795149272326e+01 -6.9954089263823647e+01 -1.5414163395579948e+01 -1.9308909455146285e+01 8.6471575863955948e+01 5.4527827364205219e+00 2.8248625792275220e+01 2.1075246509308442e+01 -1.2731263254178361e+02 1.6073032459574080e+02 2.1290637144373079e+01 -1.2402569942642458e+01 3.7349685371993026e+01 -1.3537176130966278e+01 3.7032885521899857e+01 6.7388322031203760e+00 -2.2306007177922680e+01 5.1468885134352163e+01 2.8029468616213506e+01 4.5205434721630873e+00 5.7238502165444906e+01 -1.9505485442571359e+01 5.9831076766068584e+01 -2.4589032177374008e+00 8.0041854174864682e+01 -6.2933709615199916e+01 -2.0295835354687259e+01 6.2595656887635926e+01 
      </Row>
      <Row Index="23">
        3.6509410001229980e-01 1.8217693694200161e+00 -1.0086879044336769e+01 3.2785847875134557e+00 5.9855150863987849e-01 1.1299771338299163e+01 3.1045508717348277e+01 2.1615425278509555e+01 4.3417068445799174e+00 -6.3779745502225174e+00 1.0299752733476573e+01 1.2086966732935593e+00 -9.7324466651530628e-01 6.5598414852745197e+00 -1.0744224719562180e+01 -7.3438430058675870e+00 -4.7751483044110259e+00 1.5036244143096081e+01 -2.1832954817558528e+00 3.3345645379745861e+00 7.2850292675358830e+00 -1.3300063374538720e+01 2.1290637144667571e+01 1.0861492219956519e+01 -5.7083617562437627e-01 4.0133680922895731e+00 -8.9284038614644778e+00 3.6834991671442623e+00 6.3676410146907514e-01 -1.1710122332870867e+00 2.7249458062421663e+00 1.2525656186445957e+01 2.9959056666536399e+00 9.7853132446634046e+00 -8.2914775382855037e+00 5.8491666030459069e+00 -7.9552401263231864e-01 8.7530383513183931e+00 -1.5531521672075407e+01 -8.0681801890980296e+00 7.8597058613189228e+00 
      </Row>
      <Row Index="24">
        2.7277853162044067e+02 2.5699459591182205e+01 1.7785740964509680e+00 2.3559177874893180e+00 5.9186211015545197e+01 -7.2824366275548291e+00 -1.0093674239523370e+01 -8.4757265374854995e+00 1.6681028931371208e+02 -2.1608124356035148e+01 -3.5571651266083393e+01 2.3632013977221504e+00 -1.6782751498036993e+02 -7.2142153242771343e+00 -6.0054625054884667e+00 1.8176274855199495e+00 -1.4560926287282665e+01 2.3782660442324030e+01 1.3107152451701733e+01 -3.5505263314456670e+00 1.3198640994749474e+02 9.1932324168376311e+00 -1.2402569944448942e+01 -5.7083617591219138e-01 2.5460192222646060e+02 1.3062836750606984e+01 1.6284845148724127e+01 2.6215166392811398e+00 2.9322951289052629e+01 -1.0808915510188228e+00 -3.2561855666679680e+00 -4.3580448072796258e+00 1.1259113417991553e+02 9.6701080093511305e+00 1.6151816681861959e+01 5.0259467066379671e-01 -1.9974411238889843e+01 -4.5976992605898097e+00 6.1824902165239823e+00 3.1992934241353943e+00 6.0860758889292804e+01 
      </Row>
      <Row Index="25">
        1.2307479785995234e+01 2.3847103901680761e+01 -6.6083682221985054e+00 3.2231169544752873e+00 8.8549145098266138e+00 2.9140196790372412e+00 1.0220459977160781e+01 7.8717987315919409e+00 1.1455117934044921e+01 -1.5001480060600056e+01 -5.6973284954082004e-01 3.8294709835217304e+00 -1.0899273625417692e+01 1.1881466605643240e+01 -1.5739752243013708e+01 -2.5199206703453072e+00 -5.2791852753560917e+00 3.5030715502538996e+01 6.0188446464563841e+00 9.2686468186800539e+00 1.7621448133988139e+01 -2.0509225700580735e+01 3.7349685371792077e+01 4.0133680921771528e+00 1.3062836750839706e+01 1.8950942921049236e+01 1.4416503258902038e+00 9.6981528761281766e+00 3.4885259327059241e+00 -4.8219664897832359e+00 1.2849554702814299e+01 4.1614882224996350e+00 7.7702380249968028e+00 1.9041766645465813e+01 -1.4423254915970407e+00 1.8586801970342918e+01 -1.5886642824106261e+00 1.4903782510465128e+01 -2.6589186557556213e+00 -3.0276690984197305e+00 2.2035473165721285e+01 
      </Row>
      <Row Index="26">
        3.0668065789924945e+00 3.9610325758561604e+00 1.0773902489562217e+02 2.0014709470365482e+00 1.8277752319479514e+01 1.3471103477471287e+01 -2.1310156094740375e+01 -1.9022617031038280e+01 1.6332749998919205e+00 7.7322447791686431e+00 -7.8748815718117811e+01 -4.8867760108102516e+00 -6.2569242696087656e+01 -3.6933321395271967e-01 -3.1452712375641873e+01 8.6552919056051643e+00 6.2308049570212427e+00 -9.7565416450627431e+00 3.8428772523604898e+01 6.3287721894083830e+00 1.3368081083967311e+01 4.0258197995692058e-01 -1.3537176130640383e+01 -8.9284038613538357e+00 1.6284845149538505e+01 1.4416503260524891e+00 9.7950092215927810e+01 -1.1096335415889271e+00 1.2774334753440550e+00 8.5622717493259159e-01 -1.6691800384456808e+01 -9.2545639158583288e+00 -8.1920851457166091e+00 -6.0235427006814346e+00 3.9041764726275261e+01 2.8306090908719348e+00 2.5467931531461716e+01 7.0857278307549532e-01 9.5590466548778981e+00 7.4821943088111729e+00 -8.2147926500850570e+00 
      </Row>
      <Row Index="27">
        3.9512053315608355e+00 9.8777907792071886e+00 -5.7532837422483496e+00 1.0103030890719623e+01 1.0463332437982233e+01 1.6336276982245245e+01 1.8162000342002489e+01 9.4814630663017390e+00 6.4543540360293576e+00 -7.9761832535398192e+00 1.9135743320675580e+00 4.1185678436927446e+00 -9.3823092268681307e-01 1.4491900761292499e+01 -1.5964369552197471e+01 -2.6643114341843273e+00 -8.2686234546491573e+00 2.0163711043892143e+01 3.3207206289616096e+00 9.5811441684046486e+00 1.7041808991421846e+01 -2.8919890158391325e+01 3.7032885521800495e+01 3.6834991670541086e+00 2.6215166396449923e+00 9.6981528761437286e+00 -1.1096335416988432e+00 1.2163771375909221e+01 7.5709230200134563e+00 -5.0095645586885027e+00 1.2573110487537173e+01 5.0676764962780929e+00 4.1776991122469944e+00 1.3560521287332234e+01 -2.5053591906413164e+00 1.8309029730877409e+01 -4.4421221626226526e+00 2.0481050382167155e+01 -1.1881603562126827e+01 -3.7859244106892023e+00 2.0311151524900446e+01 
      </Row>
      <Row Index="28">
        4.3395423178639618e+01 7.8724098973815799e+00 -5.6695304489858103e+00 2.3509207762325573e+01 1.8046203293047625e+01 3.0161170172681636e+01 4.5066106341463001e+00 5.2764076359132259e+00 2.2912480935984675e+01 -9.7771351219516660e+00 -1.5894367693728739e+00 9.3000604575257739e+00 -8.0822101790519980e+00 -7.5715219465990131e+00 -1.1092884850279425e+00 -1.0302455915137756e+00 -8.8890273558557809e+00 1.2407999501284452e+01 7.4902398919653139e+00 1.7010439467343417e+01 5.9717018837184611e+01 -9.9514192175154221e+00 6.7388322026148870e+00 6.3676410134569750e-01 2.9322951289092586e+01 3.4885259325944142e+00 1.2774334751160532e+00 7.5709230199031481e+00 3.4934241539169243e+01 -2.4991838786785152e+00 2.5886863612708835e+00 2.3264803652631159e+00 1.7872865072054459e+01 8.2228198585577772e+00 -1.2084653446801297e-01 1.5336367257121381e+01 -1.6422910488552354e+01 1.2705713136009665e+01 1.8978334811210624e+00 -2.0658583027454842e+00 2.6869555498448086e+01 
      </Row>
      <Row Index="29">
        -6.4948118298317326e-01 -6.1738330980788874e+00 4.8530311344904504e+00 -1.5286402526915523e+00 -7.2197498880834843e-01 -8.7636617796014491e+00 -7.8733249836943546e+00 -4.0585792755838721e+00 -1.6198673238153987e+00 1.9698379493749787e+00 4.6646085879839205e-01 -2.0144913345631608e+00 3.6065860348431045e-01 -7.6490933282953044e+00 1.1575448476509631e+01 8.1947301769203662e-01 1.2571285820640652e+00 -7.7230901826916725e+00 -5.2277378966692858e+00 -5.9019916271549846e+00 -8.9912236733228497e+00 2.5341986118598655e+01 -2.2306007177770283e+01 -1.1710122332258059e+00 -1.0808915512713018e+00 -4.8219664897702552e+00 8.5622717496858058e-01 -5.0095645586593207e+00 -2.4991838787164911e+00 8.9989632399946586e+00 -6.0729056349975608e+00 -2.0610402974069437e+00 -1.5848267498486757e+00 -6.0360619318959028e+00 1.3094453961421240e+00 -1.0004069667217291e+01 2.3945982193034574e+00 -1.5223871782941348e+01 1.0469801051893779e+01 1.6174318044377811e+00 -1.0623966264228663e+01 
      </Row>
      <Row Index="30">
        -1.5795803142958107e+00 1.0187648671061190e+01 -2.2137458383211186e+01 4.3459521668312249e+00 3.5612930518582777e+00 5.3769525245897967e+00 1.5196902251704834e+01 8.1421597844262106e+00 4.4680563362553585e+00 -1.2739636737560016e+01 1.3034449391823276e+01 2.1998811104048741e+00 1.1176576864809959e+01 2.8099878164092054e+01 -1.1553999396985438e+01 -2.9770757459662960e+00 -6.5310698865750858e+00 3.1815792233525201e+01 -5.5321731738724100e+00 9.8097223769386233e+00 3.1430262785399066e+00 -4.4248523954687570e+01 5.1468885134023388e+01 2.7249458060863176e+00 -3.2561855663428680e+00 1.2849554702771446e+01 -1.6691800384533881e+01 1.2573110487484485e+01 2.5886863613477225e+00 -6.0729056350040764e+00 2.6227174169127622e+01 3.7584496991450571e+00 3.2131703495252841e+00 1.9213652332459890e+01 -5.8559449640426884e+00 2.0298478572844193e+01 -5.6837002992552357e+00 2.6185397831685652e+01 -1.1521018153967422e+01 -3.3871335090907166e+00 2.2563610939445432e+01 
      </Row>
      <Row Index="31">
        -1.5320630075784969e+00 2.8218715321428256e+00 -1.0530194376666620e+01 4.7188777139401417e+00 -2.1588003389180224e+00 1.5039695649031181e+01 3.6612128745291059e+01 3.0509543542910858e+01 2.0656671734301248e+00 -7.5734726394332110e+00 1.2918335560357228e+01 2.4473339272014982e+00 1.4223973513485504e+00 8.6004689180084011e+00 -1.3768461540898116e+01 -9.0902630715174162e+00 -5.4782657623795759e+00 2.0130825579880778e+01 -1.7294840391865280e+00 4.1288747298593904e+00 6.4153073487859942e+00 -1.7671402167661629e+01 2.8029468616570558e+01 1.2525656186439249e+01 -4.3580448068721305e+00 4.1614882226404646e+00 -9.2545639160044750e+00 5.0676764963910017e+00 2.3264803654292079e+00 -2.0610402974831317e+00 3.7584496993440171e+00 1.6949340486368182e+01 1.3088816010065267e+00 1.4205505580728099e+01 -1.0063455014524679e+01 7.8610152506087090e+00 -4.4352192828883830e-01 1.1796757781731532e+01 -1.8146305601137044e+01 -1.1147747509870278e+01 9.4284418910459351e+00 
      </Row>
      <Row Index="32">
        1.2747170687322757e+02 1.3865881913350059e+01 -1.8781114119848198e+01 6.5583455151544854e+00 3.6031349858933176e+01 7.0379524664250823e+00 9.9978239392304644e+00 2.3222477012525418e+00 8.4372946485481094e+01 -1.3806615795254121e+01 -4.7072396166849444e+00 3.3102812335057479e+00 -6.6897650657732214e+01 -4.5274691842870141e-01 -2.7795847609585991e+00 -2.0088454722229017e+00 -1.4620250686046793e+01 1.7254272061546295e+01 2.6001678988181984e+00 1.4220649650777091e+00 7.2951015668952124e+01 -5.7631091649119242e+00 4.5205434713918180e+00 2.9959056665008283e+00 1.1259113417988367e+02 7.7702380248996583e+00 -8.1920851461526265e+00 4.1776991120952971e+00 1.7872865072048356e+01 -1.5848267497577666e+00 3.2131703494230059e+00 1.3088816007931214e+00 5.9306704210243389e+01 8.6032441288958577e+00 -9.6351083867649123e-02 4.6265057150016577e+00 -1.6952066812703258e+01 4.7515976958553736e+00 -4.9084612640844494e+00 -1.3851284459850284e+00 3.8060604101751970e+01 
      </Row>
      <Row Index="33">
        1.4154409198814143e+01 2.2793083899893922e+01 -1.3446758920784468e+01 7.5679880718693369e+00 4.6172493053983317e+00 1.4014645627631211e+01 3.2320606522816945e+01 2.7159407676278192e+01 1.2911087641100792e+01 -2.0937876156811782e+01 9.4380721428035805e+00 5.9258265103709959e+00 -6.9883586310409100e+00 2.1014581190189851e+01 -2.1837076346636081e+01 -7.9960092923696777e+00 -8.7696718308083632e+00 4.9972077354358632e+01 4.7400747227538425e+00 1.3552747270867997e+01 2.0806444436269999e+01 -3.7221367528721927e+01 5.7238502165364999e+01 9.7853132445213937e+00 9.6701080098961256e+00 1.9041766645531503e+01 -6.0235427009398945e+00 1.3560521287364423e+01 8.2228198587702437e+00 -6.0360619319469464e+00 1.9213652332605328e+01 1.4205505580552767e+01 8.6032441291435191e+00 3.0171120445553910e+01 -8.4039468519021447e+00 2.4974844665773631e+01 -2.9129273398021525e+00 2.5029073660823222e+01 -1.3788506738670701e+01 -1.0466570336219300e+01 3.0198538796850251e+01 
      </Row>
      <Row Index="34">
        7.6413223945582054e+00 -5.1803600722985621e-01 3.9360973550570762e+01 -1.2591066789075747e+00 1.2872077304440030e+01 -2.2145077749483733e+00 -3.0019074129807873e+01 -1.8492547776353732e+01 6.7165364582777229e+00 5.8095421460793650e+00 -4.1181798223066366e+01 -3.3818533779728170e+00 -3.1049804559652010e+01 -3.3951796603009043e+00 -3.9071196506038213e+00 7.0571825429006729e+00 3.4853750311453053e+00 -1.2189398591606574e+01 1.2492312084582338e+01 -7.1477712022708317e-01 7.3963753105922194e+00 7.4152076999581844e+00 -1.9505485442643913e+01 -8.2914775382493779e+00 1.6151816681907263e+01 -1.4423254916034813e+00 3.9041764726306020e+01 -2.5053591906535431e+00 -1.2084653445860161e-01 1.3094453961691563e+00 -5.8559449641023988e+00 -1.0063455014481832e+01 -9.6351083827981299e-02 -8.4039468518965581e+00 2.4279039385331064e+01 -3.3863446514242010e+00 9.0733740879857816e+00 -4.7366461227738332e+00 1.4995483378118580e+01 7.7732404179163961e+00 -7.0793346492817086e+00 
      </Row>
      <Row Index="35">
        1.4076312637433546e+00 2.0314030946185269e+01 -3.3481803368097047e+00 1.6717455851008111e+01 6.0019427459410792e+00 2.3395396121884403e+01 2.6959933491443895e+01 1.4660346281349348e+01 7.3464439962594668e+00 -1.6019894660893343e+01 -8.9607018095003355e-01 8.4075200168290394e+00 -2.7968006506505390e+00 1.8857793330032294e+01 -2.5253436461250004e+01 -4.5194025244820466e+00 -8.5891140394713119e+00 3.8944724407053108e+01 1.2650119915434512e+01 3.8064902242295943e+01 3.8738202587617764e+01 -4.5525134919822989e+01 5.9831076765852856e+01 5.8491666028806648e+00 5.0259467129825453e-01 1.8586801970342382e+01 2.8306090906865937e+00 1.8309029730868417e+01 1.5336367257348998e+01 -1.0004069667279907e+01 2.0298478572908817e+01 7.8610152504016355e+00 4.6265057152676476e+00 2.4974844665684817e+01 -3.3863446514112034e+00 4.5553742739643120e+01 -5.6499169185808995e+00 3.3106114724457896e+01 -1.5092656896931308e+01 -5.9463947909726880e+00 4.6495042299263787e+01 
      </Row>
      <Row Index="36">
        -2.5550771057108346e+01 -3.8037056410122183e+00 3.7679268916139954e+01 -1.2683083478599961e+01 -1.5713677198997345e+01 -1.4283785189248377e+01 1.3784552755581281e-01 -1.8789655697799450e+00 -1.9391258518933121e+01 4.4752992495562829e+00 -2.0202433052114671e+01 -7.8723088668484138e+00 -1.6242646772907392e+01 6.8925767553231836e+00 -1.0356666020854306e+01 1.4240700557486861e+00 1.2460665377231178e+01 -4.3081282616234073e+00 7.0102540592580560e+00 -4.7125775003929675e+00 -3.6828917488889616e+01 5.1863774694574118e+00 -2.4589032172676681e+00 -7.9552401252555605e-01 -1.9974411238434691e+01 -1.5886642822562576e+00 2.5467931531605739e+01 -4.4421221625003255e+00 -1.6422910488427931e+01 2.3945982192553004e+00 -5.6837002991503134e+00 -4.4352192814302072e-01 -1.6952066812467280e+01 -2.9129273395487476e+00 9.0733740879918319e+00 -5.6499169183551903e+00 2.4130507774114939e+01 -6.6184453053915968e+00 -2.9892479816804967e+00 8.9954343014361449e-01 -1.5913509598296157e+01 
      </Row>
      <Row Index="37">
        -5.4310393947968976e+00 1.2379279553193960e+01 -4.8278049807705585e+00 1.8041197747467692e+01 1.8744222218115823e+01 4.5134808956786884e+01 5.0362507313486788e+01 2.1615824950555435e+01 9.2236002836517201e+00 -1.3231049302619830e+01 7.4212504780374289e-01 5.2158605163623406e+00 -2.1729099172841870e+00 3.7244669794642462e+01 -3.9691894207534759e+01 -6.4206928463246555e+00 -1.5934911764874681e+01 3.5536521877920897e+01 8.3476154950676715e+00 2.0147161796602347e+01 3.5207048244990489e+01 -8.3335123546633440e+01 8.0041854174860859e+01 8.7530383511688434e+00 -4.5976992595308701e+00 1.4903782510566613e+01 7.0857278289554237e-01 2.0481050382211095e+01 1.2705713136265999e+01 -1.5223871783025317e+01 2.6185397831849780e+01 1.1796757781549672e+01 4.7515976963041879e+00 2.5029073660863773e+01 -4.7366461227398418e+00 3.3106114724530968e+01 -6.6184453056338839e+00 5.1928887893245623e+01 -3.9399609590696372e+01 -8.9306135845343260e+00 3.4306380000935569e+01 
      </Row>
      <Row Index="38">
        7.6440247528235616e+00 4.2663545970603565e+00 1.9291508284305507e+00 -9.6544621098369348e+00 -1.2269990229265346e+01 -4.1762284477092663e+01 -8.0731687775563302e+01 -3.0789980550206757e+01 -9.1988933056506710e+00 5.1111421040071434e+00 -1.1400566363507570e+01 1.0844963352700461e+00 1.4116521241130130e+01 -3.2792647620590060e+01 3.9871547236339019e+01 1.0491820971050515e+01 1.3567423024040460e+01 -1.4575427448984019e+01 -1.9767122139274282e+00 -7.2973925140807694e+00 -1.7515843984648072e+01 6.8137879927420471e+01 -6.2933709615904874e+01 -1.5531521672088513e+01 6.1824902152620780e+00 -2.6589186560559552e+00 9.5590466549875686e+00 -1.1881603562330312e+01 1.8978334808151196e+00 1.0469801052044136e+01 -1.1521018154302906e+01 -1.8146305601170273e+01 -4.9084612646708727e+00 -1.3788506739046838e+01 1.4995483378138193e+01 -1.5092656897269215e+01 -2.9892479814795934e+00 -3.9399609591036807e+01 6.0826906692630310e+01 1.2991206040143791e+01 -1.7150896425028989e+01 
      </Row>
      <Row Index="39">
        6.3812416864400490e-01 -3.0187736702216466e+00 8.8404815782685269e+00 -3.7054857933343008e+00 1.6487581600629753e+00 -1.1573149804111011e+01 -2.6363566717906139e+01 -2.0403550667689093e+01 -2.0132885878539248e+00 5.9529770262139756e+00 -9.9885521601386174e+00 -2.1014730156577457e+00 -1.6881700180291475e+00 -6.4402651943706637e+00 9.2834775060875696e+00 6.1020189156951652e+00 4.6014816036389190e+00 -1.5034080044610514e+01 8.0718108790655196e-01 -3.1319483078429471e+00 -5.4400005529709787e+00 1.3501543169413036e+01 -2.0295835354919223e+01 -8.0681801890881388e+00 3.1992934238533905e+00 -3.0276690985130514e+00 7.4821943089161058e+00 -3.7859244107632293e+00 -2.0658583028577682e+00 1.6174318044898399e+00 -3.3871335092265067e+00 -1.1147747509863523e+01 -1.3851284461300430e+00 -1.0466570336332760e+01 7.7732404179447538e+00 -5.9463947911079726e+00 8.9954343024480465e-01 -8.9306135846518302e+00 1.2991206040110940e+01 7.7552132345362743e+00 -7.4328518649050643e+00 
      </Row>
      <Row Index="40">
        7.6943525074693937e+01 2.6787324129778625e+01 -2.0166703817725590e+01 1.9215164647524489e+01 1.9359151161269097e+01 2.3823687834826728e+01 3.2407569777222477e+01 1.7652710302525229e+01 5.2630217829534274e+01 -2.3799490683722233e+01 3.9381594268762186e+00 1.0099849397756998e+01 -3.2070634910835793e+01 1.9023013679386537e+01 -2.3401648948095136e+01 -6.1370392899218587e+00 -1.4529784902963232e+01 4.8973043380460361e+01 1.0931265312706696e+01 3.7052068247827719e+01 7.2065022385651332e+01 -4.7097726939982039e+01 6.2595656886875403e+01 7.8597058610513528e+00 6.0860758889865849e+01 2.2035473165632187e+01 -8.2147926505041529e+00 2.0311151524775767e+01 2.6869555498643454e+01 -1.0623966264222275e+01 2.2563610939416272e+01 9.4284418906961349e+00 3.8060604101988858e+01 3.0198538796570467e+01 -7.0793346492760989e+00 4.6495042299051363e+01 -1.5913509598639592e+01 3.4306380000551883e+01 -1.7150896424326575e+01 -7.4328518646712922e+00 6.8460847498156809e+01 
      </Row>
    </InverseHessian>
  </Weights>
</MethodSetup>
